FANN_FLO_2.1
num_layers=3
learning_rate=0.700000
connection_rate=1.000000
network_type=0
learning_momentum=0.000000
training_algorithm=2
train_error_function=1
train_stop_function=0
cascade_output_change_fraction=0.010000
quickprop_decay=-0.000100
quickprop_mu=1.750000
rprop_increase_factor=1.200000
rprop_decrease_factor=0.500000
rprop_delta_min=0.000000
rprop_delta_max=50.000000
rprop_delta_zero=0.100000
cascade_output_stagnation_epochs=12
cascade_candidate_change_fraction=0.010000
cascade_candidate_stagnation_epochs=12
cascade_max_out_epochs=150
cascade_min_out_epochs=50
cascade_max_cand_epochs=150
cascade_min_cand_epochs=50
cascade_num_candidate_groups=2
bit_fail_limit=3.49999994039535520000e-001
cascade_candidate_limit=1.00000000000000000000e+003
cascade_weight_multiplier=4.00000005960464480000e-001
cascade_activation_functions_count=10
cascade_activation_functions=3 5 7 8 10 11 14 15 16 17 
cascade_activation_steepnesses_count=4
cascade_activation_steepnesses=2.50000000000000000000e-001 5.00000000000000000000e-001 7.50000000000000000000e-001 1.00000000000000000000e+000 
layer_sizes=3 10 4 
scale_included=0
neurons (num_inputs, activation_function, activation_steepness)=(0, 0, 0.00000000000000000000e+000) (0, 0, 0.00000000000000000000e+000) (0, 0, 0.00000000000000000000e+000) (3, 5, 9.99999977648258210000e-003) (3, 5, 9.99999977648258210000e-003) (3, 5, 9.99999977648258210000e-003) (3, 5, 9.99999977648258210000e-003) (3, 5, 9.99999977648258210000e-003) (3, 5, 9.99999977648258210000e-003) (3, 5, 9.99999977648258210000e-003) (3, 5, 9.99999977648258210000e-003) (3, 5, 9.99999977648258210000e-003) (0, 0, 0.00000000000000000000e+000) (10, 5, 9.99999977648258210000e-003) (10, 5, 9.99999977648258210000e-003) (10, 5, 9.99999977648258210000e-003) (0, 0, 0.00000000000000000000e+000) 
connections (connected_to_neuron, weight)=(0, -5.48932600021362300000e+000) (1, 1.58174865722656250000e+002) (2, -1.85585357666015620000e+002) (0, 1.46627941131591800000e+001) (1, 1.45914825439453120000e+002) (2, -1.92861694335937500000e+002) (0, -8.74120521545410160000e+000) (1, 1.62183364868164060000e+002) (2, -1.85485931396484370000e+002) (0, -2.48732776641845700000e+001) (1, -2.52722740173339840000e+001) (2, 6.39438133239746090000e+001) (0, 9.47384414672851560000e+001) (1, 2.13524932861328120000e+002) (2, -3.40171386718750000000e+002) (0, 1.35440826416015630000e+001) (1, 1.69189472198486330000e+001) (2, -1.37999000549316410000e+001) (0, -1.54502305984497070000e+001) (1, 2.09276371002197270000e+001) (2, -8.57933998107910160000e+000) (0, -2.55797157287597660000e+001) (1, -1.66169948577880860000e+001) (2, 6.54640579223632810000e+001) (0, 9.47476806640625000000e+001) (1, 2.13539138793945310000e+002) (2, -3.40202636718750000000e+002) (3, 1.89067573547363280000e+001) (4, -4.23141098022460940000e+001) (5, 1.93112449645996090000e+001) (6, -3.57549362182617190000e+001) (7, -7.72904815673828130000e+001) (8, 1.07652235031127930000e+001) (9, -1.35122308731079100000e+001) (10, 2.54190196990966800000e+001) (11, -7.73544616699218750000e+001) (12, 1.43394851684570310000e+002) (3, 1.10119812011718750000e+002) (4, 1.54344131469726560000e+002) (5, 1.10140747070312500000e+002) (6, 1.60376892089843750000e+002) (7, 2.37887153625488280000e+001) (8, -5.64744186401367190000e+001) (9, -7.31353088378906250000e+002) (10, 4.00406036376953120000e+002) (11, 2.36987686157226560000e+001) (12, 4.99023818969726560000e+000) (3, -1.82691390991210940000e+002) (4, -5.63624954223632810000e+001) (5, -2.12201858520507810000e+002) (6, -1.26395294189453120000e+002) (7, 7.54013442993164060000e+001) (8, 2.01160964965820310000e+002) (9, 1.02377447509765620000e+003) (10, -3.64399993896484370000e+002) (11, 7.54331207275390630000e+001) (12, 4.46247196197509770000e+000) 
